digraph Tree {
node [shape=box, fontname="helvetica"] ;
edge [fontname="helvetica"] ;
0 [label="sex=female <= 0.5\nentropy = 0.931\nsamples = 984\nvalue = [643, 341]"] ;
1 [label="pclass=1st <= 0.5\nentropy = 0.669\nsamples = 645\nvalue = [532, 113]"] ;
0 -> 1 [labeldistance=2.5, labelangle=45, headlabel="True"] ;
2 [label="age <= 11.0\nentropy = 0.55\nsamples = 511\nvalue = [446, 65]"] ;
1 -> 2 ;
3 [label="pclass=2nd <= 0.5\nentropy = 0.918\nsamples = 15\nvalue = [5, 10]"] ;
2 -> 3 ;
4 [label="age <= 0.583\nentropy = 0.991\nsamples = 9\nvalue = [5, 4]"] ;
3 -> 4 ;
5 [label="entropy = 0.0\nsamples = 1\nvalue = [1, 0]"] ;
4 -> 5 ;
6 [label="age <= 3.5\nentropy = 1.0\nsamples = 8\nvalue = [4, 4]"] ;
4 -> 6 ;
7 [label="entropy = 0.0\nsamples = 2\nvalue = [0, 2]"] ;
6 -> 7 ;
8 [label="age <= 7.5\nentropy = 0.918\nsamples = 6\nvalue = [4, 2]"] ;
6 -> 8 ;
9 [label="entropy = 0.0\nsamples = 2\nvalue = [2, 0]"] ;
8 -> 9 ;
10 [label="entropy = 1.0\nsamples = 4\nvalue = [2, 2]"] ;
8 -> 10 ;
11 [label="entropy = 0.0\nsamples = 6\nvalue = [0, 6]"] ;
3 -> 11 ;
12 [label="age <= 18.5\nentropy = 0.503\nsamples = 496\nvalue = [441, 55]"] ;
2 -> 12 ;
13 [label="entropy = 0.0\nsamples = 18\nvalue = [18, 0]"] ;
12 -> 13 ;
14 [label="age <= 45.5\nentropy = 0.515\nsamples = 478\nvalue = [423, 55]"] ;
12 -> 14 ;
15 [label="age <= 19.5\nentropy = 0.522\nsamples = 468\nvalue = [413, 55]"] ;
14 -> 15 ;
16 [label="pclass=3rd <= 0.5\nentropy = 0.764\nsamples = 9\nvalue = [7, 2]"] ;
15 -> 16 ;
17 [label="entropy = 0.918\nsamples = 3\nvalue = [2, 1]"] ;
16 -> 17 ;
18 [label="entropy = 0.65\nsamples = 6\nvalue = [5, 1]"] ;
16 -> 18 ;
19 [label="age <= 28.5\nentropy = 0.516\nsamples = 459\nvalue = [406, 53]"] ;
15 -> 19 ;
20 [label="age <= 26.5\nentropy = 0.428\nsamples = 80\nvalue = [73, 7]"] ;
19 -> 20 ;
21 [label="entropy = 0.488\nsamples = 66\nvalue = [59, 7]"] ;
20 -> 21 ;
22 [label="entropy = 0.0\nsamples = 14\nvalue = [14, 0]"] ;
20 -> 22 ;
23 [label="age <= 30.5\nentropy = 0.533\nsamples = 379\nvalue = [333, 46]"] ;
19 -> 23 ;
24 [label="entropy = 0.722\nsamples = 15\nvalue = [12, 3]"] ;
23 -> 24 ;
25 [label="entropy = 0.524\nsamples = 364\nvalue = [321, 43]"] ;
23 -> 25 ;
26 [label="entropy = 0.0\nsamples = 10\nvalue = [10, 0]"] ;
14 -> 26 ;
27 [label="age <= 17.5\nentropy = 0.941\nsamples = 134\nvalue = [86, 48]"] ;
1 -> 27 ;
28 [label="entropy = 0.0\nsamples = 6\nvalue = [0, 6]"] ;
27 -> 28 ;
29 [label="age <= 60.5\nentropy = 0.913\nsamples = 128\nvalue = [86, 42]"] ;
27 -> 29 ;
30 [label="age <= 28.5\nentropy = 0.931\nsamples = 121\nvalue = [79, 42]"] ;
29 -> 30 ;
31 [label="age <= 20.0\nentropy = 0.998\nsamples = 19\nvalue = [9, 10]"] ;
30 -> 31 ;
32 [label="entropy = 0.0\nsamples = 2\nvalue = [2, 0]"] ;
31 -> 32 ;
33 [label="age <= 24.5\nentropy = 0.977\nsamples = 17\nvalue = [7, 10]"] ;
31 -> 33 ;
34 [label="age <= 23.5\nentropy = 1.0\nsamples = 6\nvalue = [3, 3]"] ;
33 -> 34 ;
35 [label="entropy = 0.918\nsamples = 3\nvalue = [1, 2]"] ;
34 -> 35 ;
36 [label="entropy = 0.918\nsamples = 3\nvalue = [2, 1]"] ;
34 -> 36 ;
37 [label="age <= 26.5\nentropy = 0.946\nsamples = 11\nvalue = [4, 7]"] ;
33 -> 37 ;
38 [label="entropy = 0.811\nsamples = 4\nvalue = [1, 3]"] ;
37 -> 38 ;
39 [label="entropy = 0.985\nsamples = 7\nvalue = [3, 4]"] ;
37 -> 39 ;
40 [label="age <= 30.5\nentropy = 0.897\nsamples = 102\nvalue = [70, 32]"] ;
30 -> 40 ;
41 [label="entropy = 0.0\nsamples = 5\nvalue = [5, 0]"] ;
40 -> 41 ;
42 [label="age <= 49.5\nentropy = 0.915\nsamples = 97\nvalue = [65, 32]"] ;
40 -> 42 ;
43 [label="age <= 47.5\nentropy = 0.934\nsamples = 83\nvalue = [54, 29]"] ;
42 -> 43 ;
44 [label="entropy = 0.889\nsamples = 75\nvalue = [52, 23]"] ;
43 -> 44 ;
45 [label="entropy = 0.811\nsamples = 8\nvalue = [2, 6]"] ;
43 -> 45 ;
46 [label="age <= 51.0\nentropy = 0.75\nsamples = 14\nvalue = [11, 3]"] ;
42 -> 46 ;
47 [label="entropy = 0.0\nsamples = 3\nvalue = [3, 0]"] ;
46 -> 47 ;
48 [label="entropy = 0.845\nsamples = 11\nvalue = [8, 3]"] ;
46 -> 48 ;
49 [label="entropy = 0.0\nsamples = 7\nvalue = [7, 0]"] ;
29 -> 49 ;
50 [label="pclass=3rd <= 0.5\nentropy = 0.912\nsamples = 339\nvalue = [111, 228]"] ;
0 -> 50 [labeldistance=2.5, labelangle=-45, headlabel="False"] ;
51 [label="age <= 21.5\nentropy = 0.421\nsamples = 187\nvalue = [16, 171]"] ;
50 -> 51 ;
52 [label="entropy = 0.0\nsamples = 27\nvalue = [0, 27]"] ;
51 -> 52 ;
53 [label="age <= 30.5\nentropy = 0.469\nsamples = 160\nvalue = [16, 144]"] ;
51 -> 53 ;
54 [label="age <= 29.5\nentropy = 0.746\nsamples = 33\nvalue = [7, 26]"] ;
53 -> 54 ;
55 [label="age <= 27.5\nentropy = 0.65\nsamples = 30\nvalue = [5, 25]"] ;
54 -> 55 ;
56 [label="pclass=2nd <= 0.5\nentropy = 0.755\nsamples = 23\nvalue = [5, 18]"] ;
55 -> 56 ;
57 [label="age <= 24.5\nentropy = 0.439\nsamples = 11\nvalue = [1, 10]"] ;
56 -> 57 ;
58 [label="entropy = 0.0\nsamples = 8\nvalue = [0, 8]"] ;
57 -> 58 ;
59 [label="entropy = 0.918\nsamples = 3\nvalue = [1, 2]"] ;
57 -> 59 ;
60 [label="age <= 26.5\nentropy = 0.918\nsamples = 12\nvalue = [4, 8]"] ;
56 -> 60 ;
61 [label="entropy = 0.845\nsamples = 11\nvalue = [3, 8]"] ;
60 -> 61 ;
62 [label="entropy = 0.0\nsamples = 1\nvalue = [1, 0]"] ;
60 -> 62 ;
63 [label="entropy = 0.0\nsamples = 7\nvalue = [0, 7]"] ;
55 -> 63 ;
64 [label="entropy = 0.918\nsamples = 3\nvalue = [2, 1]"] ;
54 -> 64 ;
65 [label="age <= 61.5\nentropy = 0.369\nsamples = 127\nvalue = [9, 118]"] ;
53 -> 65 ;
66 [label="age <= 51.0\nentropy = 0.347\nsamples = 123\nvalue = [8, 115]"] ;
65 -> 66 ;
67 [label="age <= 49.5\nentropy = 0.381\nsamples = 108\nvalue = [8, 100]"] ;
66 -> 67 ;
68 [label="age <= 44.5\nentropy = 0.358\nsamples = 103\nvalue = [7, 96]"] ;
67 -> 68 ;
69 [label="entropy = 0.397\nsamples = 89\nvalue = [7, 82]"] ;
68 -> 69 ;
70 [label="entropy = 0.0\nsamples = 14\nvalue = [0, 14]"] ;
68 -> 70 ;
71 [label="pclass=2nd <= 0.5\nentropy = 0.722\nsamples = 5\nvalue = [1, 4]"] ;
67 -> 71 ;
72 [label="entropy = 0.918\nsamples = 3\nvalue = [1, 2]"] ;
71 -> 72 ;
73 [label="entropy = 0.0\nsamples = 2\nvalue = [0, 2]"] ;
71 -> 73 ;
74 [label="entropy = 0.0\nsamples = 15\nvalue = [0, 15]"] ;
66 -> 74 ;
75 [label="age <= 63.5\nentropy = 0.811\nsamples = 4\nvalue = [1, 3]"] ;
65 -> 75 ;
76 [label="entropy = 1.0\nsamples = 2\nvalue = [1, 1]"] ;
75 -> 76 ;
77 [label="entropy = 0.0\nsamples = 2\nvalue = [0, 2]"] ;
75 -> 77 ;
78 [label="age <= 39.0\nentropy = 0.954\nsamples = 152\nvalue = [95, 57]"] ;
50 -> 78 ;
79 [label="age <= 32.097\nentropy = 0.962\nsamples = 148\nvalue = [91, 57]"] ;
78 -> 79 ;
80 [label="age <= 5.5\nentropy = 0.944\nsamples = 141\nvalue = [90, 51]"] ;
79 -> 80 ;
81 [label="age <= 2.5\nentropy = 0.811\nsamples = 4\nvalue = [1, 3]"] ;
80 -> 81 ;
82 [label="age <= 1.083\nentropy = 1.0\nsamples = 2\nvalue = [1, 1]"] ;
81 -> 82 ;
83 [label="entropy = 0.0\nsamples = 1\nvalue = [0, 1]"] ;
82 -> 83 ;
84 [label="entropy = 0.0\nsamples = 1\nvalue = [1, 0]"] ;
82 -> 84 ;
85 [label="entropy = 0.0\nsamples = 2\nvalue = [0, 2]"] ;
81 -> 85 ;
86 [label="age <= 12.5\nentropy = 0.934\nsamples = 137\nvalue = [89, 48]"] ;
80 -> 86 ;
87 [label="entropy = 0.0\nsamples = 5\nvalue = [5, 0]"] ;
86 -> 87 ;
88 [label="age <= 16.5\nentropy = 0.946\nsamples = 132\nvalue = [84, 48]"] ;
86 -> 88 ;
89 [label="age <= 15.5\nentropy = 0.722\nsamples = 5\nvalue = [1, 4]"] ;
88 -> 89 ;
90 [label="entropy = 0.0\nsamples = 1\nvalue = [0, 1]"] ;
89 -> 90 ;
91 [label="entropy = 0.811\nsamples = 4\nvalue = [1, 3]"] ;
89 -> 91 ;
92 [label="age <= 19.5\nentropy = 0.931\nsamples = 127\nvalue = [83, 44]"] ;
88 -> 92 ;
93 [label="entropy = 1.0\nsamples = 6\nvalue = [3, 3]"] ;
92 -> 93 ;
94 [label="entropy = 0.924\nsamples = 121\nvalue = [80, 41]"] ;
92 -> 94 ;
95 [label="age <= 37.0\nentropy = 0.592\nsamples = 7\nvalue = [1, 6]"] ;
79 -> 95 ;
96 [label="entropy = 0.0\nsamples = 5\nvalue = [0, 5]"] ;
95 -> 96 ;
97 [label="entropy = 1.0\nsamples = 2\nvalue = [1, 1]"] ;
95 -> 97 ;
98 [label="entropy = 0.0\nsamples = 4\nvalue = [4, 0]"] ;
78 -> 98 ;
}